<?xml version="1.0"?>
<opencv_storage>
<hogsvm_64_16 type_id="opencv-object-detector-hog">
  <winSize>
    64 64</winSize>
  <blockSize>
    16 16</blockSize>
  <blockStride>
    8 8</blockStride>
  <cellSize>
    8 8</cellSize>
  <nbins>9</nbins>
  <derivAperture>1</derivAperture>
  <winSigma>4.</winSigma>
  <histogramNormType>0</histogramNormType>
  <L2HysThreshold>2.0000000000000001e-01</L2HysThreshold>
  <gammaCorrection>1</gammaCorrection>
  <nlevels>64</nlevels>
  <signedGradient>0</signedGradient>
  <SVMDetector>
    7.07766786e-02 2.21901331e-02 -1.23567935e-02 -7.74665363e-03
    2.63849702e-02 9.60208289e-03 -5.13064265e-02 1.47174885e-02
    7.84753710e-02 5.68614453e-02 4.04446237e-02 7.12093664e-03
    -4.78050346e-03 -3.53183933e-02 3.45321186e-02 -2.68817134e-02
    3.62470895e-02 8.52410719e-02 -3.85653935e-02 -3.00581977e-02
    -2.96071339e-02 2.38335710e-02 9.96223390e-02 4.79141474e-02
    -2.90272553e-02 -3.51163074e-02 -3.37078236e-02 -2.03876588e-02
    1.94357429e-02 2.60791127e-02 4.71198633e-02 6.32828921e-02
    2.67369542e-02 -1.54100088e-02 -6.46702771e-04 -3.25018093e-02
    -4.19184007e-02 3.32715400e-02 -1.22787664e-02 2.33143866e-02
    -3.29117626e-02 -8.41434347e-04 -4.70586196e-02 3.96255553e-02
    -2.93435040e-03 1.61011964e-02 4.48701084e-02 -2.52679680e-02
    -9.78803635e-03 -4.24275957e-02 3.00465990e-02 -3.58050652e-02
    2.84501705e-02 3.63864265e-02 -2.14681402e-02 2.24876739e-02
    -2.17166711e-02 3.67855057e-02 4.00045849e-02 2.89677400e-02
    -5.34161134e-03 1.98429618e-02 -3.58768143e-02 -6.13258360e-03
    1.67862307e-02 -4.75810282e-03 7.69896805e-02 3.51560228e-02
    6.08052611e-02 2.77374890e-02 2.08197478e-02 -3.12886909e-02
    1.05616814e-02 1.35956202e-02 -6.62581250e-02 -3.24929878e-02
    -7.51147568e-02 -1.37060769e-02 -3.75340208e-02 1.77501403e-02
    1.34585779e-02 2.60798074e-03 6.73051551e-02 -4.00894992e-02
    3.75763327e-02 -4.93599512e-02 -3.52395326e-02 -6.56472519e-02
    4.49438766e-02 2.07258351e-02 -1.72485050e-03 1.08827157e-02
    -2.10104696e-02 4.67385948e-02 2.44392846e-02 1.35374386e-02
    -1.67703088e-02 -1.03852972e-02 -3.24522965e-02 2.98702642e-02
    4.69735377e-02 -1.10338312e-02 6.95830807e-02 3.97926159e-02
    6.27418458e-02 -2.52574235e-02 1.70102455e-02 -2.01320276e-02
    1.36018405e-02 5.42287417e-02 -4.65558432e-02 4.95458627e-03
    -3.83906141e-02 -6.11615181e-02 -7.99451917e-02 2.34238654e-02
    -9.66178603e-04 -5.51858498e-03 4.20495495e-02 -3.94459106e-02
    -4.52693254e-02 -1.13583259e-01 -4.26515378e-02 -4.81109098e-02
    2.32601222e-02 -5.75462962e-03 1.39269838e-02 1.11412443e-02
    -2.48829108e-02 4.46667820e-02 7.81691596e-02 5.14982976e-02
    -4.75048609e-02 1.71727668e-02 -1.76497027e-02 1.48546686e-02
    3.04698739e-02 4.16415744e-03 4.16545309e-02 8.53985082e-03
    4.80804034e-02 1.43830795e-02 3.93060707e-02 -9.06139612e-03
    2.65691802e-02 5.43706007e-02 -8.42974614e-03 1.56357430e-03
    -9.84620228e-02 -1.46871610e-02 -1.88053008e-02 4.18878496e-02
    5.00602275e-02 8.01489037e-03 6.72561526e-02 -1.68096665e-02
    1.69598665e-02 -2.66531873e-02 -6.31653098e-03 -3.48908156e-02
    3.89615744e-02 4.93865795e-02 3.45672145e-02 3.89263779e-02
    -1.06937131e-02 3.31069604e-02 7.18999840e-03 2.70678122e-02
    2.51520239e-02 5.79046384e-02 1.96152404e-02 -1.07710669e-02
    2.60927137e-02 -3.33668175e-03 3.60469744e-02 -4.75758268e-03
    5.52250333e-02 1.17827514e-02 1.38548547e-02 -3.34598459e-02
    4.23897356e-02 9.28619131e-02 -3.74712003e-03 1.07238237e-02
    -2.00339016e-02 2.62698112e-03 -1.23788677e-02 8.69137496e-02
    4.92877215e-02 2.92685162e-02 5.43357767e-02 -4.68869396e-02
    -2.21688114e-02 -6.37855530e-02 -1.52980862e-02 -3.70422751e-02
    4.77541834e-02 2.35006046e-02 1.11798197e-02 4.96737659e-02
    -8.83739907e-04 2.18883399e-02 2.49778796e-02 4.48752902e-02
    3.34451981e-02 5.13123870e-02 -1.27014285e-02 -3.72691602e-02
    2.45192144e-02 2.10957676e-02 5.26936576e-02 4.58455943e-02
    3.00059635e-02 6.30057091e-03 1.41266678e-02 -3.59879732e-02
    1.40784770e-01 1.30076557e-01 1.22015215e-02 -4.06776704e-02
    -9.02598202e-02 -2.51383148e-02 -5.03127836e-02 3.93114835e-02
    8.98126736e-02 1.18108056e-01 7.38360509e-02 -3.16424519e-02
    5.71274292e-03 4.13258113e-02 -1.32588390e-02 -5.92606328e-02
    3.50904502e-02 7.49544129e-02 -7.96525332e-04 1.92262568e-02
    2.23576333e-02 2.40220912e-02 2.72696167e-02 -7.55373435e-03
    -9.59348679e-03 1.17236935e-03 -1.55017674e-02 -6.43824041e-02
    -1.95357054e-02 -2.92440075e-02 7.56763220e-02 1.04430437e-01
    1.78163480e-02 -4.26005870e-02 -3.74011286e-02 -8.17528740e-02
    -1.07332012e-02 -9.37573984e-03 -1.55988950e-02 4.49519977e-03
    2.52907574e-02 -8.32168851e-03 -3.45844775e-02 -1.42161467e-03
    -1.18127670e-02 1.58285890e-02 3.20989676e-02 2.68629584e-02
    -3.11665218e-02 1.36823971e-02 -7.31904386e-03 -1.28496764e-02
    1.84056591e-02 1.09087611e-02 -1.83911994e-02 -1.02118244e-02
    -1.08710285e-02 5.15472069e-02 6.13426380e-02 2.15075426e-02
    -3.25402915e-02 -1.23031139e-02 -1.57727078e-02 3.64254005e-02
    3.94834466e-02 2.64847837e-02 7.42248911e-03 4.09414209e-02
    1.40227219e-02 1.90699119e-02 -6.60105317e-04 3.55326347e-02
    -2.63907593e-02 7.53586087e-03 -2.70483680e-02 -3.20842154e-02
    -6.99128062e-02 1.27353903e-03 -6.10406138e-03 4.85261232e-02
    -1.38003742e-02 -8.05307087e-03 1.52555089e-02 -3.19702886e-02
    1.37954596e-02 -6.43913224e-02 4.07176651e-03 1.64351109e-02
    1.66761819e-02 -1.99900903e-02 -4.47251871e-02 -1.80290230e-02
    -1.70801654e-02 -1.12295039e-02 -3.24712433e-02 8.64143576e-03
    -7.04490207e-03 1.97903607e-02 -1.08548701e-02 -3.59554887e-02
    2.23347284e-02 2.27143113e-02 4.15168107e-02 2.42165290e-03
    4.65695485e-02 1.12478128e-02 1.17002903e-02 -3.85087281e-02
    -1.64704882e-02 -7.73662049e-03 -6.32494166e-02 -2.65809596e-02
    -6.86549321e-02 -5.93325980e-02 -5.80180772e-02 -1.98057592e-02
    -4.13719527e-02 1.84723511e-02 1.55581413e-02 -1.97197013e-02
    -1.06859906e-02 -5.56088723e-02 -2.64849197e-02 -3.85256447e-02
    -7.51013448e-03 3.86124849e-03 -2.04842072e-02 -2.44273189e-02
    -6.41064420e-02 -2.20379457e-02 1.67211099e-03 1.17603072e-03
    -1.69423670e-02 -1.63353551e-02 -3.50710452e-02 -8.66800640e-03
    5.27861305e-02 4.67893817e-02 7.28699714e-02 -3.17966416e-02
    6.42155483e-02 -9.28281923e-04 1.56529490e-02 9.23658628e-03
    6.16796454e-03 -7.16629205e-03 -2.62647104e-02 -5.96175008e-02
    -3.36203091e-02 -2.92875301e-02 -5.30374199e-02 -6.44220738e-04
    1.76839693e-03 8.15323554e-03 9.25478712e-03 -4.87959348e-02
    -8.62015560e-02 -6.23590797e-02 -6.48017451e-02 -5.79721257e-02
    -1.14802197e-02 -3.11397435e-03 1.79543514e-02 5.57588153e-02
    2.87670195e-02 -2.82986406e-02 -2.71497369e-02 3.96392448e-03
    -3.38445306e-02 -2.69607437e-04 3.94435301e-02 4.85121273e-02
    5.15321977e-02 5.13729360e-03 -1.44872367e-02 3.50240730e-02
    1.74003839e-02 -1.60231590e-02 2.90201657e-04 8.57779232e-04
    1.05161285e-02 5.38269915e-02 1.67162053e-03 -2.68852133e-02
    -6.63244426e-02 -5.06932735e-02 -4.18913253e-02 3.77607681e-02
    2.82675046e-02 -5.09059466e-02 -6.27250038e-03 -6.77802861e-02
    -2.97561921e-02 -9.56334248e-02 -7.98545778e-02 -6.00464530e-02
    -5.33783669e-03 -2.81134099e-02 -1.51047856e-02 4.58009355e-02
    2.77040880e-02 2.12695133e-02 -2.08291411e-03 4.51919660e-02
    1.24350935e-02 4.62327302e-02 1.04118604e-02 -5.14698774e-02
    -5.12279803e-03 -1.27093047e-02 1.53261051e-02 -2.97556538e-02
    -7.12325703e-03 -9.29424260e-03 3.99805494e-02 5.04630199e-03
    -1.56093566e-02 3.25249359e-02 -3.80407199e-02 4.82006781e-02
    -2.70276871e-02 1.51303057e-02 -1.96447764e-02 3.76178622e-02
    -1.64432246e-02 -5.21230772e-02 -1.52926368e-03 -2.37324778e-02
    -1.16555309e-02 -5.10010645e-02 4.85139620e-03 -2.09821593e-02
    9.67829768e-03 -2.56500877e-02 -1.46647999e-02 3.74243781e-02
    1.45588126e-02 6.59012869e-02 -2.85365675e-02 3.03069353e-02
    8.59310478e-03 6.75970018e-02 1.46759441e-02 -1.85017195e-02
    5.66510065e-03 -1.73489880e-02 1.23427957e-02 -2.63566095e-02
    2.05209535e-02 5.89847751e-03 2.75773183e-02 -2.86281924e-03
    1.45699149e-02 1.60276424e-02 3.86159979e-02 1.85199212e-02
    -8.62191059e-03 -1.23117622e-02 3.22413445e-02 2.68998537e-02
    2.94067021e-02 -3.37929092e-02 -5.30969631e-03 -1.45163564e-02
    2.53522564e-02 3.70820761e-02 1.51493140e-02 -2.45886315e-02
    -2.03243103e-02 -3.88223082e-02 2.55757533e-02 1.11734830e-02
    2.26216651e-02 -3.15194856e-03 4.72166277e-02 2.37666792e-03
    4.50775549e-02 3.55702639e-02 3.52965817e-02 -2.74909288e-02
    4.45608376e-03 -1.98852979e-02 2.50012893e-02 9.48806778e-02
    1.53491339e-02 -8.59686453e-03 9.70110483e-03 -3.12673375e-02
    -5.32252751e-02 -3.64694148e-02 -1.94921251e-02 5.15387673e-03
    5.38580641e-02 -6.76856237e-03 -3.27037089e-02 -2.57016737e-02
    -4.90057655e-02 1.05373356e-02 1.72563468e-03 -2.33741645e-02
    -3.60162072e-02 -4.85621486e-03 -2.03202362e-04 1.36518339e-02
    -1.12715354e-02 -1.98967401e-02 -3.21798101e-02 2.08488060e-03
    1.04249883e-02 3.13239731e-02 6.70182705e-02 2.37849019e-02
    -3.36581543e-02 -3.91064100e-02 -6.46062270e-02 1.34827308e-02
    4.43932973e-02 2.11851485e-02 1.34502342e-02 4.39155698e-02
    5.42568183e-03 1.15215052e-02 2.45270645e-03 -3.14169601e-02
    -9.86794126e-04 -3.30735147e-02 -4.35226522e-02 -2.66472176e-02
    -4.33559157e-02 -6.28204793e-02 -9.92777385e-03 6.08116947e-03
    1.69276912e-02 -2.40256153e-02 -9.48094949e-03 3.07493773e-03
    5.33609244e-04 -2.01887563e-02 -1.62828397e-02 -2.19111145e-02
    -1.01684183e-02 -3.17905284e-02 1.24336671e-04 -4.92032478e-03
    -2.56728958e-02 -1.97546296e-02 -6.34285016e-03 -8.36370233e-03
    1.24006753e-03 3.26011367e-02 -4.16735820e-05 -6.72089448e-03
    -5.06612426e-03 1.58073921e-02 5.71603887e-02 -1.51562514e-02
    4.85200472e-02 -3.42547037e-02 1.16314786e-02 -2.18836945e-02
    -3.68013419e-02 -9.88876298e-02 -1.08208172e-01 -1.75147012e-01
    -5.95220104e-02 -1.05731204e-01 -5.45246191e-02 -4.24238630e-02
    -5.42751364e-02 5.64606152e-02 -4.24827589e-03 7.67294224e-03
    -2.75410283e-02 -9.48435441e-03 -6.34336472e-02 -1.92449670e-02
    -4.41060448e-03 1.60324425e-02 -2.74753086e-02 -4.80620824e-02
    -7.30814710e-02 -9.78315398e-02 -2.33528093e-02 -9.24895611e-03
    -2.54790913e-02 -3.20209973e-02 -5.21615818e-02 3.45622678e-03
    1.26156220e-02 8.35513175e-02 7.44327232e-02 7.59746656e-02
    2.52317544e-02 4.83536124e-02 -5.30570163e-04 -2.74323430e-02
    6.25406876e-02 9.70089063e-03 -2.74782591e-02 -1.40249953e-01
    -9.94857028e-02 -1.49151444e-01 -5.60399890e-02 -2.82749813e-02
    3.31853256e-02 1.21796429e-02 -2.63106376e-02 -9.21217501e-02
    -1.65599197e-01 -4.86092307e-02 -1.01875775e-01 -9.20829084e-03
    -3.83622870e-02 1.38733508e-02 8.89470577e-02 4.02315445e-02
    1.41727654e-02 -1.24471448e-01 -5.69467545e-02 -1.15859188e-01
    -2.43564583e-02 3.17217186e-02 7.28264004e-02 7.87105709e-02
    5.16484259e-03 2.06376202e-02 -7.53521249e-02 -3.81733035e-03
    4.30242298e-03 3.56524102e-02 3.79687101e-02 7.74803758e-02
    2.62728315e-02 -8.02034605e-03 -6.50155693e-02 -9.94001105e-02
    2.17641965e-02 -1.33877285e-02 1.97606869e-02 -1.57459155e-02
    2.49297582e-02 -4.29329909e-02 -6.00111783e-02 -1.01468898e-01
    -1.57199755e-01 -7.08989054e-02 -1.17952123e-01 -6.30943850e-02
    -6.01189062e-02 -2.58588232e-02 6.78850263e-02 3.82172763e-02
    4.29437011e-02 1.76067352e-02 7.26481229e-02 6.57233372e-02
    9.39177200e-02 6.24395348e-02 4.51771691e-02 1.11956466e-02
    -2.26854701e-02 -3.13168392e-02 -5.88872544e-02 -1.66016612e-02
    -4.91886912e-03 -2.40949867e-03 1.74526628e-02 7.10700378e-02
    -1.53665971e-02 1.60065386e-02 6.34340895e-03 1.55185414e-02
    2.39967667e-02 -1.52621120e-02 2.11867727e-02 -8.56512785e-03
    7.24333944e-03 -3.40467207e-02 -2.45023370e-02 -4.76850010e-02
    -4.75806855e-02 -2.65865847e-02 -7.13816807e-02 -5.55669628e-02
    -5.53556234e-02 -5.26990108e-02 1.49080660e-02 2.89229453e-02
    2.24082097e-02 3.53374891e-02 2.10590474e-02 6.37372257e-04
    -1.46704093e-02 8.95193405e-03 1.36659816e-02 -3.40646133e-02
    2.42710026e-04 -1.26423417e-02 5.05637331e-03 -9.99101996e-03
    -2.87631657e-02 -4.97844443e-03 1.54318521e-03 -4.17755917e-02
    1.30374385e-02 2.89789233e-02 6.99738879e-03 2.42756703e-03
    -1.09849200e-02 -2.64746621e-02 -3.79341245e-02 -1.72945466e-02
    5.08245733e-03 -3.17751132e-02 -1.33619802e-02 -6.81391433e-02
    4.55703819e-03 2.72211228e-02 -1.71073079e-02 -6.08914495e-02
    -3.30062881e-02 -4.71144617e-02 5.95082156e-02 6.36773780e-02
    4.05118391e-02 3.41517031e-02 -1.60562936e-02 2.23511439e-02
    1.23267677e-02 4.98087332e-02 4.47547771e-02 -1.59701817e-02
    8.60552303e-03 -2.96423361e-02 3.60258669e-02 4.99820374e-02
    3.55540775e-02 -5.20959543e-03 9.93320905e-03 -1.64996516e-02
    -2.50497106e-02 7.34299002e-03 -4.52225422e-03 3.16181360e-03
    9.97442193e-03 -1.70015302e-02 -5.41409366e-02 -3.10986675e-02
    -3.16670798e-02 1.86637156e-02 3.02143618e-02 -1.17192529e-02
    2.23085866e-03 4.35940437e-02 -9.20061197e-04 1.50930672e-03
    3.06611881e-02 -6.23548357e-03 -4.86487523e-02 4.88624908e-03
    -1.24116549e-02 1.50793409e-02 3.64420414e-02 2.23505516e-02
    -2.94275489e-02 -2.04022638e-02 -3.25367413e-02 8.36899318e-03
    2.97757611e-02 4.90012672e-03 1.54490434e-02 9.32043232e-03
    2.23635435e-02 9.90984775e-03 1.45908408e-02 -6.53494033e-04
    1.18577294e-03 -8.81230924e-03 -4.65613492e-02 -4.51152623e-02
    -4.14003134e-02 -3.36891189e-02 -3.09749097e-02 2.12868792e-03
    -1.20373638e-02 -2.28861962e-02 3.97591013e-03 -1.13024833e-02
    -4.87768091e-03 -2.43774708e-02 2.44697044e-03 -1.70998648e-02
    4.36186278e-03 -1.44235343e-02 1.60945989e-02 1.63272787e-02
    -2.07747314e-02 -7.42318714e-03 -4.58956994e-02 5.38010336e-03
    -3.48383039e-02 -2.00063586e-02 -1.01144090e-02 -2.81816144e-02
    3.53124663e-02 2.02062400e-03 -1.54910972e-02 5.20803686e-03
    7.24307001e-02 7.05143949e-03 1.60929952e-02 -3.97794135e-02
    -7.99426436e-02 -9.11827981e-02 -1.04698844e-01 -1.88330591e-01
    -1.64795697e-01 -1.00364171e-01 -6.91455379e-02 -6.60976991e-02
    -7.72389621e-02 -3.28565799e-02 -3.31393629e-02 3.56593616e-02
    4.40065265e-02 -1.58879254e-02 1.14909615e-02 1.28294220e-02
    8.55460111e-03 -4.11685184e-02 -6.56011254e-02 -5.57113811e-02
    -3.79449949e-02 -1.33212507e-01 -1.31597832e-01 -1.27739251e-01
    -9.03965980e-02 -6.51779175e-02 -6.09848462e-02 1.18939122e-02
    -6.14397228e-03 8.88094380e-02 2.79488806e-02 -3.75264362e-02
    2.67437771e-02 5.08461669e-02 1.27218142e-02 2.12704111e-03
    9.77747422e-03 -1.05526512e-02 -2.64090672e-02 -9.04528201e-02
    -1.05318375e-01 -9.00414363e-02 -5.28206527e-02 -1.20651172e-02
    1.93858985e-02 2.71979459e-02 -2.89601684e-02 -1.82265863e-02
    -6.95600957e-02 -6.98729530e-02 -4.19765078e-02 -3.22384760e-02
    -3.07984389e-02 9.65872221e-03 2.09351513e-03 -1.20508047e-02
    -4.55361381e-02 -7.63744637e-02 -1.04446925e-01 -3.39682363e-02
    -4.10707528e-03 -4.99011890e-04 2.47810185e-02 3.24191153e-02
    -1.23700043e-02 -1.99569840e-04 -4.04170379e-02 -2.22720653e-02
    -1.44601678e-02 -3.18330303e-02 -1.73142496e-02 1.31577495e-02
    2.31696200e-03 -1.89132541e-02 1.86594259e-02 4.45499234e-02
    3.35310353e-03 3.61480936e-02 3.74285094e-02 -2.12336238e-02
    -1.22783706e-02 -3.85173075e-02 -6.44188300e-02 -6.28187284e-02
    -7.87567794e-02 -1.18240029e-01 -1.05003320e-01 -7.83476084e-02
    -6.17520921e-02 -4.80690114e-02 2.19910126e-02 -2.98956111e-02
    2.72946451e-02 7.27430731e-02 -7.14217592e-03 1.19136624e-01
    7.91043043e-03 3.83503549e-02 2.42853686e-02 -5.34656383e-02
    -6.59935549e-02 -4.90086228e-02 -9.43389237e-02 -1.27010122e-01
    -8.71516913e-02 -6.41091168e-02 -6.13214523e-02 -8.08575228e-02
    7.81899877e-03 4.47993428e-02 1.93958152e-02 2.34454814e-02
    1.26813259e-02 1.19852256e-02 2.17753779e-02 2.57698093e-02
    1.64796738e-03 -3.16650793e-02 -9.64053720e-03 -3.14696580e-02
    -7.29129165e-02 -2.41360953e-03 -7.83603415e-02 -4.59722988e-02
    -1.62960812e-02 -3.02438047e-02 3.23678651e-05 2.88478322e-02
    -2.25822162e-03 2.27086134e-02 2.11011134e-02 5.44491746e-02
    5.89408875e-02 3.48498113e-02 -4.05358113e-02 -4.24533561e-02
    -1.88966040e-02 -5.10527603e-02 -6.93870187e-02 -1.16079878e-02
    -1.73457786e-02 -6.07650122e-03 -1.61737564e-03 -3.43043469e-02
    6.11087366e-04 3.83234434e-02 8.34430009e-03 9.09262430e-03
    -5.98577708e-02 -1.14348251e-02 1.81654319e-02 4.29841653e-02
    1.60363205e-02 -3.97425294e-02 5.04276522e-06 -3.66971679e-02
    -1.23852361e-02 3.27930748e-02 -2.54984782e-03 -4.33237525e-03
    3.44923064e-02 -2.38252059e-02 1.97167825e-02 2.09102929e-02
    2.42189933e-02 4.80708033e-02 -1.72378810e-03 3.28248553e-02
    5.17215580e-02 3.26699317e-02 1.15006790e-02 -4.99322563e-02
    -2.27172673e-02 -2.19893605e-02 3.26074734e-02 4.46475521e-02
    8.69495887e-03 -3.08290664e-02 2.04059687e-02 -2.76154317e-02
    -4.23760489e-02 1.25547750e-02 -2.89053787e-02 2.24250462e-02
    2.54726373e-02 5.40146977e-03 -3.52379046e-02 -1.17044402e-02
    -3.43133435e-02 1.78211629e-02 1.49584189e-02 -4.29519303e-02
    -5.77335525e-03 -7.63683720e-03 3.65475169e-03 -3.91101232e-03
    5.09945489e-03 1.37387011e-02 -5.59070073e-02 -1.36707611e-02
    -2.60359850e-02 4.20528837e-02 6.67183325e-02 4.43093739e-02
    -4.17423211e-02 -5.73627725e-02 -6.26696050e-02 -4.04984131e-02
    -5.12207532e-03 -5.53047331e-03 3.44777405e-02 -3.51797999e-03
    2.25789621e-02 -6.72511198e-03 -1.40892128e-02 -1.15100332e-02
    2.60134134e-02 3.43054160e-02 -7.42769521e-03 -6.42072409e-03
    -4.53827903e-02 -1.40682897e-02 -7.13452697e-03 -2.71655689e-03
    -2.45084148e-03 1.39697790e-02 5.93565665e-02 6.11149427e-03
    1.82567369e-02 1.81619544e-02 6.02959469e-02 1.62521703e-03
    6.79005811e-04 -2.51378156e-02 -2.24875123e-03 -1.39476527e-02
    -7.09369406e-03 -1.80265009e-02 -1.06265724e-01 -5.92145100e-02
    -2.65095327e-02 -2.22463645e-02 -5.14055416e-03 2.92762294e-02
    8.60711094e-03 -3.49123925e-02 2.28874721e-02 -2.35484987e-02
    3.82930040e-02 -6.69368170e-03 1.49751571e-03 1.63361095e-02
    -2.12608390e-02 -1.64995696e-02 -1.67374238e-02 -5.63663468e-02
    -8.38156790e-02 -1.31110519e-01 -7.23331943e-02 -1.61981601e-02
    1.14976999e-03 1.38157550e-02 -1.76398605e-02 1.95447598e-02
    3.19715403e-02 1.59116462e-02 5.23769064e-03 9.16914195e-02
    8.89782906e-02 4.92431186e-02 -3.74131352e-02 -7.55230933e-02
    -8.17839280e-02 -7.30267316e-02 -1.34775460e-01 -1.88449502e-01
    -1.11023627e-01 -7.03508332e-02 -8.18705373e-03 -1.81313157e-02
    -6.20495304e-02 -2.97281314e-02 8.96077789e-03 -5.05216122e-02
    -4.66358364e-02 3.51159275e-02 3.77602018e-02 1.71890222e-02
    8.25851113e-02 2.97474619e-02 -1.60913207e-02 -3.54832485e-02
    -8.40370357e-02 -8.06277320e-02 -1.04583818e-02 5.88135868e-02
    8.10152367e-02 7.60713220e-02 6.47391304e-02 6.52436540e-02
    -1.32158045e-02 -3.37345041e-02 -5.93135767e-02 -3.68694402e-02
    5.76877370e-02 5.85780740e-02 4.56143133e-02 -3.57066952e-02
    -6.28558248e-02 -1.12864606e-01 -1.21439934e-01 -1.05677329e-01
    -4.36142571e-02 8.60549160e-04 3.86173502e-02 2.51607988e-02
    -1.46150561e-02 -1.80548262e-02 -1.10476702e-01 -1.65430948e-01
    -1.34595662e-01 -7.42161125e-02 -1.06054377e-02 3.88895683e-02
    1.66783072e-02 4.56334390e-02 1.00402631e-01 1.06076747e-01
    1.14593208e-02 6.80692643e-02 -5.91818895e-03 4.27085310e-02
    3.98296751e-02 1.17898232e-03 8.33426660e-04 -3.18642296e-02
    -2.82954816e-02 -5.17538972e-02 -5.77610321e-02 -4.93923351e-02
    -1.79754104e-02 -1.27165215e-02 -7.09507149e-03 -1.23404488e-02
    -7.72917131e-03 1.67300645e-02 -3.00648566e-02 4.79550613e-03
    -1.83485309e-03 4.11016680e-02 -1.00711035e-02 -5.54330274e-02
    -6.30433634e-02 -9.98086780e-02 -1.46936029e-01 -1.05370648e-01
    -1.34237438e-01 -1.08506583e-01 -6.56207576e-02 -8.98277983e-02
    2.46107206e-02 1.37913525e-02 -1.45616699e-02 4.05022092e-02
    -1.74599439e-02 2.09210422e-02 1.40063418e-03 8.39398522e-03
    -2.73366068e-02 3.13560292e-02 2.62851305e-02 -4.05896977e-02
    -5.17258458e-02 -3.66405062e-02 -4.01955172e-02 -3.44230607e-02
    5.23499679e-04 -1.22257443e-02 1.91839188e-02 6.53408933e-03
    -1.02247056e-02 4.36256267e-02 1.28698638e-02 4.19610329e-02
    2.62281951e-02 3.08435205e-02 -3.12972032e-02 -3.65614183e-02
    -1.68946460e-02 -7.56250471e-02 -7.73105845e-02 4.56154495e-02
    -3.54910456e-03 -3.95707302e-02 -7.83246290e-03 -6.25033081e-02
    3.43439765e-02 4.76489961e-02 2.09980998e-02 2.69284844e-02
    -1.16742486e-02 -2.01212330e-04 -2.01816298e-02 1.88535508e-02
    5.28158247e-03 -1.94336940e-02 5.76397113e-04 -3.61542106e-02
    1.52549017e-02 2.92494595e-02 2.53641629e-04 -4.52020019e-02
    -1.56333239e-03 -2.21253596e-02 -5.02872514e-03 3.43073495e-02
    7.99949467e-03 1.99584500e-03 1.53263267e-02 4.71568666e-02
    3.96462623e-03 1.88733488e-02 -4.05291468e-02 -4.54583392e-02
    -9.37432051e-03 -2.68511027e-02 4.57548648e-02 4.11744528e-02
    5.19394428e-02 -4.32019532e-02 -1.83633175e-02 -7.04637021e-02
    -2.31591202e-02 8.89512710e-03 -1.38512859e-02 3.09263617e-02
    2.51815114e-02 1.23758232e-02 -3.28979418e-02 -1.22714359e-02
    -3.47318090e-02 -1.54441956e-03 9.20884497e-03 -1.07452376e-02
    1.68467183e-02 -3.24613117e-02 -1.49788905e-03 -3.54031026e-02
    -2.02351008e-02 4.41656855e-04 -5.37412837e-02 1.33089302e-03
    -2.13781036e-02 8.96646362e-03 3.72287519e-02 1.56858508e-02
    -1.31298183e-02 1.29346298e-02 -4.71033081e-02 -1.62525829e-02
    1.85748900e-03 -3.52203324e-02 2.83645354e-02 -3.22744511e-02
    7.62590319e-02 8.35123472e-03 4.10185987e-03 -1.45626608e-02
    -1.66699346e-02 8.53039045e-03 -2.93081161e-02 -1.26600377e-02
    -8.92760828e-02 -4.97222953e-02 -5.97924553e-02 -3.37849259e-02
    5.52133052e-03 1.62320286e-02 -8.45919363e-03 -1.79422889e-02
    2.87517216e-02 2.34056301e-02 6.21447004e-02 1.57141425e-02
    -6.32186467e-03 2.80641317e-02 -3.22415531e-02 -3.02800667e-02
    -7.52506331e-02 1.88449696e-02 -5.32254130e-02 -5.54975308e-03
    -2.18705833e-02 -2.68253535e-02 -1.51966456e-02 -6.49364945e-03
    -1.49045717e-02 -2.44941898e-02 5.75653128e-02 -3.44930477e-02
    4.92354408e-02 2.62507424e-02 2.05618273e-02 8.13509244e-03
    -7.50102177e-02 -4.13632803e-02 -3.45331542e-02 1.75809618e-02
    -4.77438830e-02 -6.48621693e-02 -3.96771245e-02 -2.85860132e-02
    -5.13420962e-02 -5.57723790e-02 -1.68282352e-02 -1.07959220e-02
    7.03870952e-02 -1.56083582e-02 7.92151541e-02 1.31549006e-02
    6.21471666e-02 -8.84885248e-03 -2.97433231e-02 -1.62836667e-02
    -3.92251350e-02 -6.62749913e-03 -1.04601584e-01 -7.09702671e-02
    -2.15385929e-02 -1.29071390e-02 -1.67783536e-02 -4.29022163e-02
    5.20010805e-03 -3.51429321e-02 1.01957135e-02 -4.50967252e-02
    9.42025892e-03 -2.04154197e-02 -1.15971034e-02 -4.56922539e-02
    4.55716215e-02 2.31304318e-02 1.57889016e-02 2.39392091e-02
    1.68836024e-03 2.43129414e-02 -2.81457249e-02 2.44955346e-02
    4.35627960e-02 7.20557123e-02 6.42707720e-02 2.87854113e-03
    1.21745598e-02 -2.12272331e-02 1.27631240e-02 7.42141902e-03
    3.22118998e-02 4.32446748e-02 2.30976939e-02 7.99818803e-03
    -2.25765575e-02 -6.58015907e-02 -7.36677349e-02 -6.75986186e-02
    -6.36535510e-02 -3.66912968e-02 -4.55645472e-03 1.41443312e-02
    -3.91089730e-03 -6.58982098e-02 -4.83921729e-02 -1.11733370e-01
    -6.46708086e-02 -5.13340048e-02 -1.05743418e-02 -7.00118067e-03
    2.82277074e-02 4.18371186e-02 -8.02411512e-03 6.47325665e-02
    -6.19748654e-03 4.83616516e-02 4.07688022e-02 7.59583414e-02
    3.37615889e-03 2.32438222e-02 2.44965330e-02 -4.86752279e-02
    2.43628155e-02 -1.88400969e-02 3.57561186e-02 -1.30835669e-02
    1.97729096e-02 -2.24412307e-02 6.92383759e-03 3.45449597e-02
    -3.83399217e-03 3.29198278e-02 -5.14128804e-02 3.67485452e-03
    -1.04392497e-02 2.72416156e-02 1.60986502e-02 -3.95447426e-02
    -1.70211177e-02 -6.33554235e-02 -3.17086540e-02 -6.31014034e-02
    -1.97157729e-02 -6.50031567e-02 -2.97992211e-03 -2.26991903e-02
    8.65099393e-03 3.20693552e-02 -4.76484969e-02 5.85641228e-02
    -2.70810109e-02 8.49793106e-02 3.09743918e-02 4.71634530e-02
    -7.85497203e-03 -9.05049499e-03 2.50609424e-02 -6.50714189e-02
    -4.02642712e-02 -7.77195860e-03 3.65712419e-02 -2.86755413e-02
    1.90342106e-02 -1.52057735e-02 -2.21705846e-02 -2.89577362e-03
    -4.47696820e-02 7.34455362e-02 -2.98243072e-02 7.13969395e-02
    -2.71558184e-02 2.54095495e-02 -2.23209355e-02 -1.78608317e-02
    -1.77423805e-02 -6.58869222e-02 1.31109478e-02 -5.79630621e-02
    -1.05838170e-02 -3.32395546e-02 5.78074344e-03 -1.07904673e-02
    3.08204312e-02 4.75122444e-02 2.74981912e-02 4.74388385e-03
    3.34871411e-02 4.64942269e-02 1.44241080e-02 3.83854173e-02
    3.17255175e-03 -2.75293142e-02 -1.44792942e-03 -1.92837641e-02
    2.63401456e-02 7.64481630e-03 3.53878848e-02 -1.77862460e-03
    -3.53219640e-03 -4.54375707e-02 5.77108469e-03 2.40171421e-02
    3.41349579e-02 1.69849619e-02 2.11674962e-02 1.79261994e-03
    -1.74962189e-02 1.94011275e-02 -5.66091854e-03 -7.08673447e-02
    -4.94513959e-02 -3.07607576e-02 7.31205866e-02 3.33772190e-02
    9.81171578e-02 -1.54061103e-02 8.06657318e-03 -3.91464233e-02
    -8.49316865e-02 -1.26600973e-02 -1.84640288e-02 4.33239192e-02
    3.86998653e-02 4.81917597e-02 -1.60489567e-02 1.03031034e-02
    -6.55427724e-02 -4.96504083e-02 -4.22213785e-03 -2.95790900e-02
    4.12272178e-02 1.47586614e-02 6.41321987e-02 4.91355127e-03
    -6.80606347e-03 -4.83584069e-02 9.32970047e-02 2.55595762e-02
    -3.21064256e-02 3.81824523e-02 -1.79062486e-02 7.69619122e-02
    -1.90113690e-02 2.42307484e-02 6.51336387e-02 1.40086383e-01
    3.06445826e-02 2.34847399e-03 4.57629822e-02 -4.23901863e-02
    5.79066649e-02 -1.25904707e-03 1.77788921e-02 7.34845549e-02
    -5.12633026e-02 -5.41285425e-03 -1.56404264e-02 3.33258025e-02
    -1.44675691e-02 -1.11903138e-02 -9.36006755e-03 -1.21945310e-02
    -4.16684449e-02 -3.59757282e-02 5.37713384e-03 -2.01418716e-02
    4.85060401e-02 5.17077520e-02 3.52154598e-02 -3.57094221e-03
    1.66441854e-02 -4.54964489e-02 3.43117081e-02 -1.10202068e-02
    -2.22838502e-02 5.74867008e-03 -7.82496184e-02 -3.30424532e-02
    -2.65309401e-02 1.54587058e-02 3.11543699e-02 7.55730718e-02
    3.80907804e-02 3.74708837e-03 1.43750524e-02 -1.43843368e-02
    4.20603119e-02 4.86404523e-02 6.23921044e-02 9.58746746e-02
    -2.61061024e-02 4.54660709e-04 -2.06337739e-02 4.64599803e-02
    -2.34655421e-02 3.48572270e-03 -8.44909437e-03 -1.55273434e-02
    -4.03850973e-02 8.62871669e-03 1.49839297e-02 1.21825226e-02
    8.29974115e-02 4.02303450e-02 5.90478666e-02 5.03528044e-02
    1.64495129e-02 -2.43008863e-02 2.41151582e-02 2.21623220e-02
    -3.54151241e-02 -1.67288501e-02 -1.01450168e-01 -3.42404358e-02
    -7.59153813e-03 1.15519939e-02 3.44574830e-04 6.20437525e-02
    3.14385556e-02 4.38445527e-03 6.13343203e-03 -7.75538385e-02
    3.38171562e-03 -4.95696161e-03 2.69752331e-02 1.77770425e-02
    4.68578190e-02 5.08734137e-02 2.30170991e-02 3.57088782e-02
    -5.04185772e-03 -1.66057032e-02 -2.73698457e-02 1.43370600e-02
    2.35020295e-02 2.68585812e-02 3.76212783e-02 -3.41865816e-04
    3.22118998e-02 2.21568812e-02 2.96510197e-02 4.18397598e-03
    5.15737236e-02 4.00173999e-02 2.82941237e-02 1.40728848e-02
    -1.97726935e-02 -1.63434912e-02 -4.84800413e-02 2.01493707e-02
    1.41695701e-02 4.45040651e-02 9.91711672e-03 2.33491529e-02
    3.93826328e-02 -1.00209434e-02 -1.10886171e-02 -4.49423380e-02
    -4.78213988e-02 -1.31387236e-02 6.45923018e-02 3.88604333e-03
    2.03002542e-02 7.49579892e-02 4.47000340e-02 1.06695749e-01
    4.17935923e-02 5.51411100e-02 -7.77057698e-03 3.77080664e-02
    2.35991068e-02 -3.15314718e-02 3.39470953e-02 6.75841281e-03
    2.25981623e-02 9.23639536e-03 4.63845534e-03 -5.08945771e-02
    -1.31828506e-02 -3.51759307e-02 4.27071974e-02 6.58890083e-02
    -1.88429654e-02 9.96380020e-03 -3.76304276e-02 -1.45730106e-02
    -6.67687133e-03 6.00878112e-02 5.19946683e-03 4.49747480e-02
    1.84732676e-02 -7.41433427e-02 -3.29577178e-02 -3.47429067e-02
    -3.02482694e-02 -3.31318416e-02 -1.75314082e-03 -1.39911072e-02
    -2.89389328e-03 4.60155196e-02 5.47228940e-02 6.07994869e-02
    1.96056552e-02 3.85550484e-02 -2.64289416e-02 7.08691310e-03
    -7.34034739e-03 -6.11973219e-02 -1.06613338e-02 -1.14736119e-02
    3.27007063e-02 3.25873643e-02 2.41057729e-04 2.96594575e-03
    1.76381804e-02 -3.82816717e-02 5.94824441e-02 6.85375482e-02
    5.38071152e-03 2.94724968e-03 1.31893568e-04 2.12575160e-02
    3.23803425e-02 5.32409102e-02 4.50008661e-02 7.74611682e-02
    8.61936361e-02 -2.11784262e-02 1.05171045e-03 -5.46431802e-02
    -1.14982044e-02 3.91469337e-02 9.03454050e-02 1.51013478e-03
    -2.57699266e-02 1.55504914e-02 -1.15328198e-02 -2.31450482e-04
    -5.78000117e-03 -2.28732657e-02 -1.96343232e-02 3.41196246e-02
    -2.64038565e-03 -3.65496874e-02 -2.32835878e-02 -6.29111007e-02
    1.67106781e-02 9.80665758e-02 7.64742419e-02 -3.97719704e-02
    1.46608008e-02 -2.61536073e-02 1.59023523e-01 1.11680344e-01
    -4.00787825e-03 -4.03749570e-02 -7.54105747e-02 -2.29388010e-02
    7.70600140e-03 8.90946239e-02 9.54169184e-02 1.98131204e-01
    1.30355939e-01 1.58539731e-02 1.52944364e-02 8.41400772e-02
    1.07664848e-02 -5.83742000e-02 5.99494539e-02 9.84254107e-02
    5.26527762e-01</SVMDetector></hogsvm_64_16>
</opencv_storage>
